Language model created by QuickLM on Mon Mar 11 19:50:40 EDT 2019
Copyright (c) 1996-2010 Carnegie Mellon University and Alexander I. Rudnicky

The model is in standard ARPA format, designed by Doug Paul while he was at MITRE.

The code that was used to produce this language model is available in Open Source.
Please visit http://www.speech.cs.cmu.edu/tools/ for more information

The (fixed) discount mass is 0.5. The backoffs are computed using the ratio method.
This model based on a corpus of 55 sentences and 85 words

\data\
ngram 1=85
ngram 2=162
ngram 3=171

\1-grams:
-1.0896 </s> -0.3010
-1.0896 <s> -0.2353
-2.5289 A -0.2997
-2.1310 AM -0.2847
-2.5289 ANY -0.2997
-2.8299 ANYTHING -0.2642
-2.8299 AT -0.2991
-2.3528 BINGO -0.2978
-2.8299 BREAKFAST -0.2952
-2.5289 CAN -0.2867
-2.8299 CANNOT -0.3004
-2.3528 DAY -0.2926
-2.5289 DINNER -0.2939
-2.3528 DO -0.2867
-2.5289 DON’T -0.2978
-2.8299 EVENTS -0.2952
-2.8299 FAMILY -0.2642
-2.1310 FOR -0.2972
-2.8299 FRANK -0.3004
-2.8299 FRIEND -0.2642
-2.8299 GET -0.3004
-2.0518 GO -0.2578
-2.5289 GOOD -0.2985
-2.8299 GOODBYE -0.2913
-2.5289 GREAT -0.2978
-2.8299 GUESS -0.2939
-2.8299 HAPPY -0.2642
-2.8299 HAVE -0.2997
-2.8299 HELLO -0.2913
-2.3528 HELP -0.2628
-2.3528 HEY -0.2913
-2.8299 HI -0.2913
-2.3528 HOME -0.2642
-2.8299 HUNGRY -0.2642
-1.4875 I -0.2427
-1.7160 IS -0.2886
-2.2279 IT -0.2642
-2.8299 KNOW -0.2997
-2.8299 LATER -0.2642
-2.1310 LIKE -0.2860
-2.8299 LISTEN -0.2919
-1.6539 LUCI -0.2550
-2.8299 LUNCH -0.2952
-2.8299 MAYBE -0.3004
-2.8299 MEDICINE -0.2952
-2.8299 MORNING -0.2913
-2.8299 MUSIC -0.2642
-2.5289 MY -0.2997
-2.3528 NEED -0.2913
-2.3528 NIGHT -0.2536
-2.5289 NO -0.2635
-2.8299 NOT -0.3004
-2.8299 NOW -0.2642
-2.8299 NURSE -0.2642
-2.3528 OKAY -0.2405
-2.8299 OUTSIDE -0.2952
-2.8299 PLAY -0.2997
-2.8299 SAD -0.2642
-2.8299 SINATRA -0.2642
-2.8299 SOCIAL -0.3004
-2.5289 SOME -0.2997
-2.8299 STOP -0.2642
-2.8299 TAKE -0.2997
-2.3528 TALK -0.2919
-2.3528 THANK -0.2991
-2.8299 THAT -0.2926
-2.3528 THE -0.2991
-2.8299 THERE -0.2991
-2.8299 TIME -0.2926
-1.6838 TO -0.2521
-1.8757 TODAY -0.2642
-2.5289 TONIGHT -0.2642
-2.8299 UP -0.2642
-2.8299 WALK -0.2642
-2.2279 WANT -0.2919
-2.3528 WEATHER -0.2919
-1.7886 WHAT -0.2521
-2.8299 WHAT'S -0.2991
-2.8299 WHEN -0.2926
-2.5289 WHERE -0.2833
-2.8299 WON -0.3004
-2.2279 WOULD -0.2978
-2.5289 YES -0.2642
-2.3528 YOU -0.2536
-2.8299 YUMMY -0.2642

\2-grams:
-2.0414 <s> CAN 0.0000
-1.7404 <s> DO 0.0000
-1.7404 <s> GOOD 0.0000
-2.0414 <s> GOODBYE 0.0000
-1.7404 <s> GREAT 0.0000
-2.0414 <s> HELLO 0.0000
-1.5643 <s> HELP 0.0000
-1.5643 <s> HEY 0.0000
-2.0414 <s> HI 0.0000
-0.9274 <s> I -0.0726
-2.0414 <s> IS -0.2840
-1.3424 <s> LUCI -0.2041
-2.0414 <s> MAYBE 0.0000
-1.7404 <s> NO 0.0000
-2.0414 <s> NOT 0.0000
-1.7404 <s> OKAY -0.1249
-2.0414 <s> PLAY 0.0000
-1.5643 <s> THANK 0.0000
-1.3424 <s> WHAT -0.0378
-2.0414 <s> WHAT'S 0.0000
-2.0414 <s> WHEN 0.0000
-1.7404 <s> YES 0.0000
-2.0414 <s> YUMMY 0.0000
-0.6021 A NURSE 0.0000
-0.6021 A WALK 0.0000
-1.0000 AM HAPPY 0.0000
-1.0000 AM HUNGRY 0.0000
-0.6990 AM I -0.2596
-1.0000 AM SAD 0.0000
-0.6021 ANY MEDICINE 0.0000
-0.6021 ANY SOCIAL 0.0000
-0.3010 ANYTHING </s> -0.3010
-0.3010 AT BINGO -0.1249
-0.4771 BINGO NIGHT -0.1249
-0.7782 BINGO TONIGHT 0.0000
-0.3010 BREAKFAST TODAY 0.0000
-0.3010 CAN I -0.2808
-0.3010 CANNOT GET 0.0000
-0.3010 DAY IS -0.2285
-0.6021 DINNER TODAY 0.0000
-0.6021 DINNER TONIGHT 0.0000
-0.3010 DO I -0.2596
-0.6021 DON’T KNOW 0.0000
-0.6021 DON’T WANT 0.0000
-0.3010 EVENTS TODAY 0.0000
-0.3010 FAMILY </s> -0.3010
-1.0000 FOR A -0.1761
-1.0000 FOR BREAKFAST 0.0000
-0.6990 FOR DINNER 0.0000
-1.0000 FOR LUNCH 0.0000
-0.3010 FRANK SINATRA 0.0000
-0.3010 FRIEND </s> -0.3010
-0.3010 GET UP 0.0000
-1.0792 GO </s> -0.3010
-1.0792 GO FOR -0.2553
-0.6021 GO HOME 0.0000
-1.0792 GO OUTSIDE 0.0000
-0.6021 GOOD MORNING 0.0000
-0.6021 GOOD NIGHT -0.2218
-0.3010 GOODBYE LUCI -0.1461
-0.6021 GREAT CAN 0.0000
-0.6021 GREAT DO 0.0000
-0.3010 GUESS WHAT -0.2808
-0.3010 HAPPY </s> -0.3010
-0.3010 HAVE ANY -0.1761
-0.3010 HELLO LUCI -0.1461
-0.4771 HELP </s> -0.3010
-0.7782 HELP WHERE -0.1761
-0.3010 HEY LUCI -0.0544
-0.3010 HI LUCI -0.1461
-0.3010 HOME </s> -0.3010
-0.3010 HUNGRY </s> -0.3010
-1.6435 I </s> -0.3010
-1.0414 I AM 0.0000
-1.6435 I CANNOT 0.0000
-1.3424 I DON’T 0.0000
-1.6435 I GO -0.2632
-1.6435 I HAVE 0.0000
-1.1663 I NEED 0.0000
-1.6435 I TALK 0.0000
-1.1663 I WANT 0.0000
-1.6435 I WON 0.0000
-1.0414 I WOULD 0.0000
-1.4150 IS BINGO -0.1249
-0.8129 IS FOR -0.0792
-0.8129 IS IT 0.0000
-1.4150 IS OKAY -0.2218
-1.1139 IS THE 0.0000
-1.4150 IS THERE 0.0000
-0.3010 IT </s> -0.3010
-0.3010 KNOW WHERE -0.1761
-0.3010 LATER </s> -0.3010
-0.3979 LIKE TO -0.1549
-1.0000 LIKE TODAY 0.0000
-0.3010 LISTEN TO -0.2852
-0.5229 LUCI </s> -0.3010
-1.4771 LUCI GUESS 0.0000
-1.4771 LUCI STOP 0.0000
-0.8751 LUCI WHAT -0.0726
-0.3010 LUNCH TODAY 0.0000
-0.3010 MAYBE LATER 0.0000
-0.3010 MEDICINE TODAY 0.0000
-0.3010 MORNING LUCI -0.1461
-0.3010 MUSIC </s> -0.3010
-0.6021 MY FAMILY 0.0000
-0.6021 MY FRIEND 0.0000
-0.7782 NEED ANYTHING 0.0000
-0.4771 NEED TO -0.2518
-0.4771 NIGHT </s> -0.3010
-0.7782 NIGHT LUCI -0.1461
-0.6021 NO </s> -0.3010
-0.6021 NO THAT 0.0000
-0.3010 NOT NOW 0.0000
-0.3010 NOW </s> -0.3010
-0.3010 NURSE </s> -0.3010
-0.7782 OKAY </s> -0.3010
-0.7782 OKAY I -0.2596
-0.7782 OKAY WHAT -0.1627
-0.3010 OUTSIDE TODAY 0.0000
-0.3010 PLAY SOME -0.1761
-0.3010 SAD </s> -0.3010
-0.3010 SINATRA </s> -0.3010
-0.3010 SOCIAL EVENTS 0.0000
-0.6021 SOME FRANK 0.0000
-0.6021 SOME MUSIC 0.0000
-0.3010 STOP </s> -0.3010
-0.3010 TAKE ANY -0.1761
-0.3010 TALK TO -0.2518
-0.3010 THANK YOU 0.0000
-0.3010 THAT IS -0.2840
-0.3010 THE WEATHER 0.0000
-0.3010 THERE BINGO -0.2218
-0.3010 TIME IS -0.2285
-1.4472 TO </s> -0.3010
-1.4472 TO A -0.1761
-0.7482 TO GO -0.0669
-1.4472 TO LISTEN 0.0000
-1.1461 TO MY 0.0000
-1.4472 TO SOME -0.1761
-1.4472 TO TAKE 0.0000
-1.1461 TO TALK 0.0000
-0.3010 TODAY </s> -0.3010
-0.3010 TONIGHT </s> -0.3010
-0.3010 UP </s> -0.3010
-0.3010 WALK </s> -0.3010
-0.3010 WANT TO -0.1963
-0.7782 WEATHER LIKE -0.2553
-0.4771 WEATHER TODAY 0.0000
-1.3424 WHAT </s> -0.3010
-0.8653 WHAT DAY 0.0000
-0.5643 WHAT IS -0.1871
-1.3424 WHAT TIME 0.0000
-0.3010 WHAT'S THE 0.0000
-0.3010 WHEN IS -0.2840
-0.6021 WHERE AM -0.2041
-0.6021 WHERE I -0.2596
-0.3010 WON AT 0.0000
-0.3010 WOULD LIKE -0.0792
-0.3010 YES </s> -0.3010
-0.7782 YOU </s> -0.3010
-0.4771 YOU LUCI -0.1461
-0.3010 YUMMY </s> -0.3010

\3-grams:
-0.3010 <s> CAN I
-0.3010 <s> DO I
-0.6021 <s> GOOD MORNING
-0.6021 <s> GOOD NIGHT
-0.3010 <s> GOODBYE LUCI
-0.6021 <s> GREAT CAN
-0.6021 <s> GREAT DO
-0.3010 <s> HELLO LUCI
-0.4771 <s> HELP </s>
-0.7782 <s> HELP WHERE
-0.3010 <s> HEY LUCI
-0.3010 <s> HI LUCI
-0.9379 <s> I AM
-1.4150 <s> I CANNOT
-1.1139 <s> I DON’T
-1.4150 <s> I NEED
-1.1139 <s> I WANT
-1.4150 <s> I WON
-0.9379 <s> I WOULD
-0.3010 <s> IS THERE
-1.0000 <s> LUCI GUESS
-1.0000 <s> LUCI STOP
-0.5229 <s> LUCI WHAT
-0.3010 <s> MAYBE LATER
-0.6021 <s> NO </s>
-0.6021 <s> NO THAT
-0.3010 <s> NOT NOW
-0.6021 <s> OKAY I
-0.6021 <s> OKAY WHAT
-0.3010 <s> PLAY SOME
-0.3010 <s> THANK YOU
-0.6990 <s> WHAT DAY
-0.6990 <s> WHAT IS
-1.0000 <s> WHAT TIME
-0.3010 <s> WHAT'S THE
-0.3010 <s> WHEN IS
-0.3010 <s> YES </s>
-0.3010 <s> YUMMY </s>
-0.3010 A NURSE </s>
-0.3010 A WALK </s>
-0.3010 AM HAPPY </s>
-0.3010 AM HUNGRY </s>
-0.6021 AM I </s>
-0.6021 AM I WANT
-0.3010 AM SAD </s>
-0.3010 ANY MEDICINE TODAY
-0.3010 ANY SOCIAL EVENTS
-0.3010 AT BINGO NIGHT
-0.3010 BINGO NIGHT </s>
-0.3010 BINGO TONIGHT </s>
-0.3010 BREAKFAST TODAY </s>
-0.6021 CAN I GO
-0.6021 CAN I TALK
-0.3010 CANNOT GET UP
-0.3010 DAY IS IT
-0.3010 DINNER TODAY </s>
-0.3010 DINNER TONIGHT </s>
-0.7782 DO I HAVE
-0.4771 DO I NEED
-0.3010 DON’T KNOW WHERE
-0.3010 DON’T WANT TO
-0.3010 EVENTS TODAY </s>
-0.3010 FOR A WALK
-0.3010 FOR BREAKFAST TODAY
-0.6021 FOR DINNER TODAY
-0.6021 FOR DINNER TONIGHT
-0.3010 FOR LUNCH TODAY
-0.3010 FRANK SINATRA </s>
-0.3010 GET UP </s>
-0.3010 GO FOR A
-0.3010 GO HOME </s>
-0.3010 GO OUTSIDE TODAY
-0.3010 GOOD MORNING LUCI
-0.3010 GOOD NIGHT LUCI
-0.3010 GOODBYE LUCI </s>
-0.3010 GREAT CAN I
-0.3010 GREAT DO I
-0.3010 GUESS WHAT </s>
-0.3010 HAVE ANY SOCIAL
-0.3010 HELLO LUCI </s>
-0.3010 HELP WHERE AM
-0.4771 HEY LUCI </s>
-0.7782 HEY LUCI WHAT
-0.3010 HI LUCI </s>
-0.9031 I AM HAPPY
-0.9031 I AM HUNGRY
-0.9031 I AM I
-0.9031 I AM SAD
-0.3010 I CANNOT GET
-0.6021 I DON’T KNOW
-0.6021 I DON’T WANT
-0.3010 I GO OUTSIDE
-0.3010 I HAVE ANY
-0.7782 I NEED ANYTHING
-0.4771 I NEED TO
-0.3010 I TALK TO
-0.3010 I WANT TO
-0.3010 I WON AT
-0.3010 I WOULD LIKE
-0.3010 IS BINGO NIGHT
-0.9031 IS FOR BREAKFAST
-0.6021 IS FOR DINNER
-0.9031 IS FOR LUNCH
-0.3010 IS IT </s>
-0.3010 IS OKAY </s>
-0.3010 IS THE WEATHER
-0.3010 IS THERE BINGO
-0.3010 KNOW WHERE I
-0.6021 LIKE TO GO
-0.9031 LIKE TO LISTEN
-0.9031 LIKE TO TALK
-0.3010 LIKE TODAY </s>
-0.3010 LISTEN TO SOME
-0.3010 LUCI GUESS WHAT
-0.3010 LUCI STOP </s>
-0.9031 LUCI WHAT DAY
-0.4260 LUCI WHAT IS
-0.3010 LUNCH TODAY </s>
-0.3010 MAYBE LATER </s>
-0.3010 MEDICINE TODAY </s>
-0.3010 MORNING LUCI </s>
-0.3010 MY FAMILY </s>
-0.3010 MY FRIEND </s>
-0.3010 NEED ANYTHING </s>
-0.6021 NEED TO TAKE
-0.6021 NEED TO TALK
-0.3010 NIGHT LUCI </s>
-0.3010 NO THAT IS
-0.3010 NOT NOW </s>
-0.3010 OKAY I WOULD
-0.3010 OKAY WHAT IS
-0.3010 OUTSIDE TODAY </s>
-0.3010 PLAY SOME FRANK
-0.3010 SOCIAL EVENTS TODAY
-0.3010 SOME FRANK SINATRA
-0.3010 SOME MUSIC </s>
-0.3010 TAKE ANY MEDICINE
-0.7782 TALK TO A
-0.4771 TALK TO MY
-0.7782 THANK YOU </s>
-0.4771 THANK YOU LUCI
-0.3010 THAT IS OKAY
-0.7782 THE WEATHER LIKE
-0.4771 THE WEATHER TODAY
-0.3010 THERE BINGO TONIGHT
-0.3010 TIME IS IT
-0.3010 TO A NURSE
-1.0000 TO GO </s>
-1.0000 TO GO FOR
-0.5229 TO GO HOME
-0.3010 TO LISTEN TO
-0.6021 TO MY FAMILY
-0.6021 TO MY FRIEND
-0.3010 TO SOME MUSIC
-0.3010 TO TAKE ANY
-0.3010 TO TALK TO
-0.9031 WANT TO </s>
-0.4260 WANT TO GO
-0.3010 WEATHER LIKE TODAY
-0.3010 WEATHER TODAY </s>
-0.3010 WHAT DAY IS
-0.4771 WHAT IS FOR
-0.7782 WHAT IS THE
-0.3010 WHAT TIME IS
-0.3010 WHAT'S THE WEATHER
-0.3010 WHEN IS BINGO
-0.3010 WHERE AM I
-0.3010 WHERE I AM
-0.3010 WON AT BINGO
-0.3010 WOULD LIKE TO
-0.3010 YOU LUCI </s>

\end\
