Language model created by QuickLM on Thu Feb 21 16:16:39 EST 2019
Copyright (c) 1996-2010 Carnegie Mellon University and Alexander I. Rudnicky

The model is in standard ARPA format, designed by Doug Paul while he was at MITRE.

The code that was used to produce this language model is available in Open Source.
Please visit http://www.speech.cs.cmu.edu/tools/ for more information

The (fixed) discount mass is 0.5. The backoffs are computed using the ratio method.
This model based on a corpus of 53 sentences and 89 words

\data\
ngram 1=89
ngram 2=164
ngram 3=166

\1-grams:
-1.0709 </s> -0.3010
-1.0709 <s> -0.2398
-2.3181 A -0.2989
-2.4942 ANY -0.2996
-2.7952 AT -0.2989
-2.7952 BE -0.2940
-2.3181 BINGO -0.2975
-2.7952 BREAKFAST -0.2940
-2.4942 CAN -0.2919
-2.7952 CANNOT -0.3003
-2.4942 DAY -0.2954
-2.4942 DINNER -0.2926
-2.4942 DO -0.2919
-2.7952 EVENTS -0.2940
-2.7952 FAMILY -0.2625
-2.0962 FOR -0.2961
-2.7952 FRANK -0.3003
-2.7952 FRIEND -0.2625
-2.7952 GET -0.3003
-2.0962 GO -0.2564
-2.7952 GOING -0.2919
-2.3181 GOOD -0.2975
-2.7952 GOODBYE -0.2919
-2.7952 GREAT -0.2996
-2.7952 GUESS -0.2968
-2.7952 HAPPY -0.2625
-2.7952 HAVE -0.2996
-2.7952 HELLO -0.2919
-2.4942 HELP -0.2625
-2.4942 HEY -0.2919
-2.7952 HI -0.2919
-2.4942 HOME -0.2625
-2.7952 HUNGRY -0.2625
-1.6812 I -0.2876
-1.8921 IS -0.2876
-2.3181 IT -0.2625
-2.3181 I’M -0.2989
-2.7952 JOKE -0.2625
-2.7952 LATER -0.2625
-2.0962 LIKE -0.2847
-2.7952 LISTEN -0.2919
-1.6812 LUCI -0.2602
-2.3181 LUCI, -0.2975
-2.7952 LUNCH -0.2940
-2.7952 MAYBE -0.3003
-2.7952 ME -0.2989
-2.7952 MEDICINE -0.2940
-2.4942 MORNING -0.2919
-2.7952 MUSIC -0.2625
-2.4942 MY -0.2996
-2.4942 NEED -0.2919
-2.3181 NIGHT -0.2525
-2.4942 NO -0.2617
-2.7952 NOT -0.3003
-2.7952 NOW -0.2625
-2.7952 NURSE -0.2625
-2.3181 OKAY -0.2478
-2.7952 OUTSIDE -0.2940
-2.7952 PLAY -0.2996
-2.7952 SAD -0.2625
-2.7952 SINATRA -0.2625
-2.7952 SOCIAL -0.3003
-2.4942 SOME -0.2996
-2.7952 STOP -0.2625
-2.7952 TAKE -0.2996
-2.3181 TALK -0.2919
-2.7952 TELL -0.3003
-2.3181 THANK -0.2989
-2.7952 THAT -0.2954
-2.1931 THE -0.2982
-2.7952 THERE -0.2989
-2.7952 TIME -0.2954
-1.6812 TO -0.2883
-1.7952 TODAY -0.2625
-2.4942 TONIGHT -0.2625
-2.7952 UP -0.2625
-2.7952 WALK -0.2625
-2.4942 WANT -0.2919
-2.1931 WEATHER -0.2897
-2.0170 WHAT -0.2540
-2.0962 WHAT'S -0.2947
-2.7952 WHAT’S -0.2982
-2.7952 WHEN -0.2954
-2.7952 WON -0.3003
-2.1931 WOULD -0.2975
-2.4942 YES -0.2625
-2.4942 YOU -0.2525
-2.7952 YOU, -0.2919
-2.7952 YUMMY -0.2625

\2-grams:
-2.0253 <s> CAN 0.0000
-1.7243 <s> DO 0.0000
-1.5482 <s> GOOD 0.0000
-2.0253 <s> GOODBYE 0.0000
-2.0253 <s> GREAT 0.0000
-2.0253 <s> HELLO 0.0000
-1.7243 <s> HELP 0.0000
-1.7243 <s> HEY 0.0000
-2.0253 <s> HI 0.0000
-1.1222 <s> I -0.0902
-2.0253 <s> IS -0.2730
-1.5482 <s> I’M 0.0000
-1.5482 <s> LUCI -0.2478
-1.5482 <s> LUCI, 0.0000
-2.0253 <s> MAYBE 0.0000
-1.7243 <s> NO 0.0000
-2.0253 <s> NOT 0.0000
-1.7243 <s> OKAY -0.1249
-2.0253 <s> PLAY 0.0000
-1.5482 <s> THANK 0.0000
-1.4232 <s> WHAT -0.0669
-1.7243 <s> WHAT'S -0.2041
-2.0253 <s> WHAT’S 0.0000
-2.0253 <s> WHEN 0.0000
-1.7243 <s> YES 0.0000
-2.0253 <s> YUMMY 0.0000
-0.7782 A JOKE 0.0000
-0.7782 A NURSE 0.0000
-0.7782 A WALK 0.0000
-0.6021 ANY MEDICINE 0.0000
-0.6021 ANY SOCIAL 0.0000
-0.3010 AT BINGO -0.1249
-0.3010 BE TODAY 0.0000
-0.4771 BINGO NIGHT -0.1249
-0.7782 BINGO TONIGHT 0.0000
-0.3010 BREAKFAST TODAY 0.0000
-0.3010 CAN I -0.2663
-0.3010 CANNOT GET 0.0000
-0.3010 DAY IS -0.2109
-0.6021 DINNER TODAY 0.0000
-0.6021 DINNER TONIGHT 0.0000
-0.3010 DO I -0.2478
-0.3010 EVENTS TODAY 0.0000
-0.3010 FAMILY </s> -0.3010
-1.0000 FOR A -0.2218
-1.0000 FOR BREAKFAST 0.0000
-0.6990 FOR DINNER 0.0000
-1.0000 FOR LUNCH 0.0000
-0.3010 FRANK SINATRA 0.0000
-0.3010 FRIEND </s> -0.3010
-0.3010 GET UP 0.0000
-1.0000 GO </s> -0.3010
-1.0000 GO FOR -0.2553
-0.6990 GO HOME 0.0000
-1.0000 GO OUTSIDE 0.0000
-0.3010 GOING TO -0.2840
-0.4771 GOOD MORNING 0.0000
-0.7782 GOOD NIGHT -0.2218
-0.3010 GOODBYE LUCI -0.0902
-0.3010 GREAT CAN 0.0000
-0.3010 GUESS WHAT -0.2632
-0.3010 HAPPY </s> -0.3010
-0.3010 HAVE ANY -0.1761
-0.3010 HELLO LUCI -0.0902
-0.3010 HELP </s> -0.3010
-0.3010 HEY LUCI -0.0902
-0.3010 HI LUCI -0.0902
-0.3010 HOME </s> -0.3010
-0.3010 HUNGRY </s> -0.3010
-1.4150 I CANNOT 0.0000
-1.4150 I GO -0.2553
-1.4150 I HAVE 0.0000
-1.1139 I NEED 0.0000
-1.4150 I TALK 0.0000
-1.1139 I WANT 0.0000
-1.4150 I WON 0.0000
-0.8129 I WOULD 0.0000
-1.2041 IS BINGO -0.1249
-1.2041 IS FOR -0.2041
-0.7270 IS IT 0.0000
-1.2041 IS OKAY -0.2218
-1.2041 IS THE 0.0000
-1.2041 IS THERE 0.0000
-0.3010 IT </s> -0.3010
-0.7782 I’M HAPPY 0.0000
-0.7782 I’M HUNGRY 0.0000
-0.7782 I’M SAD 0.0000
-0.3010 JOKE </s> -0.3010
-0.3010 LATER </s> -0.3010
-0.3979 LIKE TO -0.1648
-1.0000 LIKE TODAY 0.0000
-0.3010 LISTEN TO -0.2840
-0.4150 LUCI </s> -0.3010
-1.4150 LUCI GUESS 0.0000
-1.4150 LUCI STOP 0.0000
-1.4150 LUCI TELL 0.0000
-0.3010 LUCI, WHAT'S -0.1461
-0.3010 LUNCH TODAY 0.0000
-0.3010 MAYBE LATER 0.0000
-0.3010 ME A -0.2218
-0.3010 MEDICINE TODAY 0.0000
-0.3010 MORNING LUCI -0.0902
-0.3010 MUSIC </s> -0.3010
-0.6021 MY FAMILY 0.0000
-0.6021 MY FRIEND 0.0000
-0.3010 NEED TO -0.2478
-0.4771 NIGHT </s> -0.3010
-0.7782 NIGHT LUCI -0.0902
-0.6021 NO </s> -0.3010
-0.6021 NO THAT 0.0000
-0.3010 NOT NOW 0.0000
-0.3010 NOW </s> -0.3010
-0.3010 NURSE </s> -0.3010
-0.7782 OKAY </s> -0.3010
-0.7782 OKAY I -0.2285
-0.7782 OKAY WHAT -0.2218
-0.3010 OUTSIDE TODAY 0.0000
-0.3010 PLAY SOME -0.1761
-0.3010 SAD </s> -0.3010
-0.3010 SINATRA </s> -0.3010
-0.3010 SOCIAL EVENTS 0.0000
-0.6021 SOME FRANK 0.0000
-0.6021 SOME MUSIC 0.0000
-0.3010 STOP </s> -0.3010
-0.3010 TAKE ANY -0.1761
-0.3010 TALK TO -0.2478
-0.3010 TELL ME 0.0000
-0.4771 THANK YOU 0.0000
-0.7782 THANK YOU, 0.0000
-0.3010 THAT IS -0.2730
-0.3010 THE WEATHER 0.0000
-0.3010 THERE BINGO -0.2218
-0.3010 TIME IS -0.2109
-1.4150 TO A -0.2218
-1.4150 TO BE 0.0000
-0.8129 TO GO -0.0792
-1.4150 TO LISTEN 0.0000
-1.1139 TO MY 0.0000
-1.4150 TO SOME -0.1761
-1.4150 TO TAKE 0.0000
-1.1139 TO TALK 0.0000
-0.3010 TODAY </s> -0.3010
-0.3010 TONIGHT </s> -0.3010
-0.3010 UP </s> -0.3010
-0.3010 WALK </s> -0.3010
-0.3010 WANT TO -0.2285
-0.9031 WEATHER GOING 0.0000
-0.9031 WEATHER LIKE -0.2553
-0.6021 WEATHER TODAY 0.0000
-1.0792 WHAT </s> -0.3010
-0.7782 WHAT DAY 0.0000
-0.7782 WHAT IS -0.2430
-1.0792 WHAT TIME 0.0000
-0.5229 WHAT'S FOR -0.0792
-0.6990 WHAT'S THE 0.0000
-0.3010 WHAT’S THE 0.0000
-0.3010 WHEN IS -0.2730
-0.3010 WON AT 0.0000
-0.3010 WOULD LIKE -0.0792
-0.3010 YES </s> -0.3010
-0.6021 YOU </s> -0.3010
-0.6021 YOU LUCI -0.0902
-0.3010 YOU, LUCI -0.0902
-0.3010 YUMMY </s> -0.3010

\3-grams:
-0.3010 <s> CAN I
-0.3010 <s> DO I
-0.4771 <s> GOOD MORNING
-0.7782 <s> GOOD NIGHT
-0.3010 <s> GOODBYE LUCI
-0.3010 <s> GREAT CAN
-0.3010 <s> HELLO LUCI
-0.3010 <s> HELP </s>
-0.3010 <s> HEY LUCI
-0.3010 <s> HI LUCI
-1.2041 <s> I CANNOT
-1.2041 <s> I NEED
-0.9031 <s> I WANT
-1.2041 <s> I WON
-0.7270 <s> I WOULD
-0.3010 <s> IS THERE
-0.7782 <s> I’M HAPPY
-0.7782 <s> I’M HUNGRY
-0.7782 <s> I’M SAD
-0.7782 <s> LUCI GUESS
-0.7782 <s> LUCI STOP
-0.7782 <s> LUCI TELL
-0.3010 <s> LUCI, WHAT'S
-0.3010 <s> MAYBE LATER
-0.6021 <s> NO </s>
-0.6021 <s> NO THAT
-0.3010 <s> NOT NOW
-0.6021 <s> OKAY I
-0.6021 <s> OKAY WHAT
-0.3010 <s> PLAY SOME
-0.4771 <s> THANK YOU
-0.7782 <s> THANK YOU,
-0.6021 <s> WHAT DAY
-0.9031 <s> WHAT IS
-0.9031 <s> WHAT TIME
-0.3010 <s> WHAT'S THE
-0.3010 <s> WHAT’S THE
-0.3010 <s> WHEN IS
-0.3010 <s> YES </s>
-0.3010 <s> YUMMY </s>
-0.3010 A JOKE </s>
-0.3010 A NURSE </s>
-0.3010 A WALK </s>
-0.3010 ANY MEDICINE TODAY
-0.3010 ANY SOCIAL EVENTS
-0.3010 AT BINGO NIGHT
-0.3010 BE TODAY </s>
-0.3010 BINGO NIGHT </s>
-0.3010 BINGO TONIGHT </s>
-0.3010 BREAKFAST TODAY </s>
-0.6021 CAN I GO
-0.6021 CAN I TALK
-0.3010 CANNOT GET UP
-0.3010 DAY IS IT
-0.3010 DINNER TODAY </s>
-0.3010 DINNER TONIGHT </s>
-0.6021 DO I HAVE
-0.6021 DO I NEED
-0.3010 EVENTS TODAY </s>
-0.3010 FOR A WALK
-0.3010 FOR BREAKFAST TODAY
-0.6021 FOR DINNER TODAY
-0.6021 FOR DINNER TONIGHT
-0.3010 FOR LUNCH TODAY
-0.3010 FRANK SINATRA </s>
-0.3010 GET UP </s>
-0.3010 GO FOR A
-0.3010 GO HOME </s>
-0.3010 GO OUTSIDE TODAY
-0.3010 GOING TO BE
-0.3010 GOOD MORNING LUCI
-0.3010 GOOD NIGHT LUCI
-0.3010 GOODBYE LUCI </s>
-0.3010 GREAT CAN I
-0.3010 GUESS WHAT </s>
-0.3010 HAVE ANY SOCIAL
-0.3010 HELLO LUCI </s>
-0.3010 HEY LUCI </s>
-0.3010 HI LUCI </s>
-0.3010 I CANNOT GET
-0.3010 I GO OUTSIDE
-0.3010 I HAVE ANY
-0.3010 I NEED TO
-0.3010 I TALK TO
-0.3010 I WANT TO
-0.3010 I WON AT
-0.3010 I WOULD LIKE
-0.3010 IS BINGO NIGHT
-0.3010 IS FOR DINNER
-0.3010 IS IT </s>
-0.3010 IS OKAY </s>
-0.3010 IS THE WEATHER
-0.3010 IS THERE BINGO
-0.3010 I’M HAPPY </s>
-0.3010 I’M HUNGRY </s>
-0.3010 I’M SAD </s>
-0.6021 LIKE TO GO
-0.9031 LIKE TO LISTEN
-0.9031 LIKE TO TALK
-0.3010 LIKE TODAY </s>
-0.3010 LISTEN TO SOME
-0.3010 LUCI GUESS WHAT
-0.3010 LUCI STOP </s>
-0.3010 LUCI TELL ME
-0.3010 LUCI, WHAT'S FOR
-0.3010 LUNCH TODAY </s>
-0.3010 MAYBE LATER </s>
-0.3010 ME A JOKE
-0.3010 MEDICINE TODAY </s>
-0.3010 MORNING LUCI </s>
-0.3010 MY FAMILY </s>
-0.3010 MY FRIEND </s>
-0.6021 NEED TO TAKE
-0.6021 NEED TO TALK
-0.3010 NIGHT LUCI </s>
-0.3010 NO THAT IS
-0.3010 NOT NOW </s>
-0.3010 OKAY I WOULD
-0.3010 OKAY WHAT IS
-0.3010 OUTSIDE TODAY </s>
-0.3010 PLAY SOME FRANK
-0.3010 SOCIAL EVENTS TODAY
-0.3010 SOME FRANK SINATRA
-0.3010 SOME MUSIC </s>
-0.3010 TAKE ANY MEDICINE
-0.7782 TALK TO A
-0.4771 TALK TO MY
-0.3010 TELL ME A
-0.6021 THANK YOU </s>
-0.6021 THANK YOU LUCI
-0.3010 THANK YOU, LUCI
-0.3010 THAT IS OKAY
-0.9031 THE WEATHER GOING
-0.9031 THE WEATHER LIKE
-0.6021 THE WEATHER TODAY
-0.3010 THERE BINGO TONIGHT
-0.3010 TIME IS IT
-0.3010 TO A NURSE
-0.3010 TO BE TODAY
-0.9031 TO GO </s>
-0.9031 TO GO FOR
-0.6021 TO GO HOME
-0.3010 TO LISTEN TO
-0.6021 TO MY FAMILY
-0.6021 TO MY FRIEND
-0.3010 TO SOME MUSIC
-0.3010 TO TAKE ANY
-0.3010 TO TALK TO
-0.3010 WANT TO GO
-0.3010 WEATHER GOING TO
-0.3010 WEATHER LIKE TODAY
-0.3010 WEATHER TODAY </s>
-0.3010 WHAT DAY IS
-0.6021 WHAT IS FOR
-0.6021 WHAT IS THE
-0.3010 WHAT TIME IS
-0.7782 WHAT'S FOR BREAKFAST
-0.7782 WHAT'S FOR DINNER
-0.7782 WHAT'S FOR LUNCH
-0.3010 WHAT'S THE WEATHER
-0.3010 WHAT’S THE WEATHER
-0.3010 WHEN IS BINGO
-0.3010 WON AT BINGO
-0.3010 WOULD LIKE TO
-0.3010 YOU LUCI </s>
-0.3010 YOU, LUCI </s>

\end\
